{
    "layers": [
        {
            "name": "input",
            "type": "input",
            "size": 8
        },
        {
            "name": "lstm_level_0",
            "type": "lstm",
            "size": 2,
            "bias": 1
        },
        {
            "name": "output",
            "type": "softmax",
            "size": 8,
            "bias": 1
        },
        {
            "name": "postoutput",
            "type": "multiclass_classification",
            "size": 8
        }
    ],
    "weights": {
        "lstm_level_0": {
            "input": [
                -0.0824701,
                0.19454,
                -0.116134,
                -0.0393946,
                -0.131044,
                -0.0394102,
                0.00118818,
                -0.165333,
                0.00129452,
                -0.0204561,
                -0.0328996,
                0.0123294,
                -0.18418,
                0.112405,
                0.0272452,
                -0.0301412,
                -0.102132,
                -0.0162644,
                0.126088,
                0.0730259,
                -0.0289815,
                0.000679195,
                0.111143,
                -0.0763275,
                -0.0713049,
                -0.182948,
                -0.0307059,
                0.0549702,
                0.0615238,
                -0.247795,
                -0.148002,
                -0.034848,
                0.00679397,
                -0.0578098,
                0.0243123,
                -0.0319748,
                -0.0206994,
                -0.0811896,
                -0.0391386,
                -0.0497641,
                0.157606,
                -0.117594,
                0.00533231,
                0.0338824,
                0.102222,
                -0.0213137,
                0.080631,
                0.0399924,
                0.0492126,
                -0.0245344,
                -0.167702,
                -0.181929,
                -0.075815,
                0.0428937,
                0.0857511,
                -0.032273,
                -0.0383729,
                0.0904469,
                -0.142578,
                0.0129343,
                0.0184626,
                0.093195,
                -0.00126217,
                0.0473643
            ],
            "bias": [
                -0.100877,
                0.134117,
                -0.130008,
                0.0160259,
                0.00559794,
                0.0358607,
                -0.0300472,
                -0.150831
            ],
            "internal": [
                -0.325344,
                0.0242296,
                0.114331,
                -0.146689,
                -0.104544,
                0.127992,
                0.0765717,
                0.116185,
                -0.0731129,
                -0.160441,
                -0.112779,
                -0.0986775,
                0.297127,
                -0.0645162,
                0.031293,
                0.093988,
                -0.0403187,
                -0.0840709,
                0.0787496,
                -0.0516448,
                -0.0965576,
                -0.12931
            ]
        },
        "output": {
            "input": [
                0.0562582,
                0.0162969,
                0.116698,
                0.148516,
                0.121384,
                0.0658973,
                0.0367028,
                -0.146157,
                0.100903,
                0.0551041,
                0.22017,
                -0.00379608,
                0.0427088,
                0.0983219,
                0.195012,
                -0.00494682
            ],
            "bias": [
                -0.00448407,
                0.0159252,
                0.00753325,
                0.0832124,
                0.0150168,
                -0.195003,
                -0.0698883,
                0.0993863
            ],
            "internal": []
        }
    }
}