{
    "layers": [
        {
            "name": "input",
            "type": "input",
            "size": 8
        },
        {
            "name": "lstm_level_0",
            "type": "lstm",
            "size": 2,
            "bias": 1
        },
        {
            "name": "output",
            "type": "feedforward_logistic",
            "size": 1,
            "bias": 1
        },
        {
            "name": "postoutput",
            "type": "binary_classification",
            "size": 1
        }
    ],
    "weights": {
        "lstm_level_0": {
            "input": [
                0.035612,
                0.129922,
                0.105365,
                0.0748507,
                -0.0304987,
                -0.153075,
                -0.0341621,
                0.0786794,
                0.0182718,
                0.0730199,
                0.168396,
                -0.132232,
                0.120541,
                -0.0297079,
                0.0577539,
                0.0397304,
                -0.156279,
                -0.0344974,
                0.166019,
                -0.0295423,
                0.0657756,
                -0.0345225,
                -0.112226,
                -0.054879,
                -0.0457956,
                0.0310461,
                -0.0729551,
                0.00638081,
                -0.176266,
                -0.0891021,
                0.030901,
                -0.253139,
                -0.0725664,
                -0.0308861,
                0.0641275,
                0.0288308,
                0.227637,
                -0.0289758,
                -0.429228,
                -0.25257,
                0.056849,
                0.133845,
                0.142913,
                -0.0437449,
                -0.268734,
                0.0601926,
                -0.121871,
                0.118658,
                0.0412057,
                0.082905,
                0.10306,
                -0.168438,
                0.0997304,
                -0.164554,
                0.00258131,
                0.117766,
                -0.0855068,
                0.0671459,
                0.129702,
                0.142483,
                -0.0735748,
                0.134913,
                0.131025,
                0.187722
            ],
            "bias": [
                0.108385,
                -0.0620923,
                -0.126809,
                0.0940995,
                0.193016,
                -0.0602912,
                -0.0470516,
                -0.00779341
            ],
            "internal": [
                0.109009,
                -0.0783043,
                0.0873144,
                -0.0807574,
                0.134524,
                0.028374,
                0.145526,
                0.0703247,
                0.138046,
                0.0870986,
                -0.0777283,
                -0.0844449,
                0.0719506,
                0.0781531,
                -0.0209596,
                -0.0110368,
                -0.0446606,
                0.131988,
                0.184924,
                0.0630399,
                0.0780254,
                -0.124759
            ]
        },
        "output": {
            "input": [
                -0.0234422,
                0.0848967
            ],
            "bias": [
                0.0593598
            ],
            "internal": []
        }
    }
}